-2.066858236973702356e-01
1.713317413595060457e-01
-1.503680123174309657e-01
-3.564796406817354324e-01
1.253791582718736808e-01
-1.811378746869714562e-01
-1.064414445990996688e-01
3.016754364900505747e-01
5.150953397536797151e-01
1.824298788446169772e-01
4.907991774286259434e-01
1.758236156292106722e-01
5.970065391083565487e-01
-2.045592218465335510e-01
1.209983743397777534e-01
4.202954764931836062e-01
-8.901450426455406739e-02
-4.018993184343995217e-01
-4.476553241731547339e-01
-9.832666188063282631e-02
-5.751954765988782636e-01
-7.985582575460871135e-01
9.421543236909241115e-01
3.279406691593791390e-01
-1.510978203791325802e-01
-1.033645259025681995e-01
-2.919565351976494694e-01
-5.589445834242394717e-01
1.103389728163224337e-01
-6.888260908672283467e-01
2.983018397331795302e-01
-1.805176953142046681e-01
1.048227503565545005e-01
4.792050640310538401e-02
-8.047611264183556212e-01
-1.469985762471407220e+00
-1.248362974253822477e+00
-6.746827190897702886e-01
-5.155699855736775028e-01
-8.219265440865382022e-01
-6.427593988676089110e-01
-3.390676981819756852e-01
3.239678046585557358e-01
-5.369215635489871241e-01
-1.891993256643248467e-01
2.302328261669372711e-01
2.493861138461454796e-02
-8.386837156029544604e-02
5.302421888782447024e-01
-3.646294021286742848e-01
6.457198567929127719e-01
5.759384288398405882e-02
-1.435018613172817092e-02
-4.248688588272535038e-01
-2.933170373880807369e-01
1.953260366008938709e-01
8.284139766541455119e-01
2.843440737724102219e-01
-3.430918356353854226e-03
2.764242656191430170e-01
1.545812028430464946e-01
2.328467816252684508e-01
-6.719826105635832159e-01
-7.257463670430229774e-01
8.936087093736811982e-01
1.654499278424093056e-02
-1.696402704651171212e-01
-1.365438368753204845e-01
-2.900936449029293263e-01
3.298817547758158830e-01
-6.591200559093639277e-02
1.533101626061163514e-01
-4.366672020855884018e-01
3.333759064867729549e-01
-2.565992807849184487e-01
-1.368866893480525371e-01
1.974831362467484031e-01
-4.171985524044379834e-01
-7.806497582825638881e-01
3.779940737149719565e-01
-7.833286342394725210e-01
3.992753845829136172e-02
2.230264567199986281e-01
5.165466549203989732e-01
-4.849064010571159100e-01
-4.696986817692965777e-01
6.108947589925025623e-01
5.184041708289118811e-01
1.044456113100323547e-01
4.326914987932894974e-01
-3.633500115859457646e-01
-1.468906311864505154e-01
-1.213939708004300455e-01
1.132535638911928155e-01
-3.335741508558210389e-01
5.517654657361664716e-01
3.008354780353132973e-01
4.893856154152932958e-01
6.394920501777539013e-01
-1.327021828661197334e-01
7.699878983470456184e-01
-2.079869191735726486e-01
-3.889967259771505148e-01
-1.302081220060074207e+00
-1.524332892394033356e+00
-1.075717937466640128e+00
-8.026154353842793743e-01
-2.165141897492099121e-01
-4.006784012560147823e-01
-1.563515976198453505e-01
-1.103259191887681290e+00
-2.192749793574043371e-01
-9.790927637431238173e-01
5.061324357605291313e-01
7.788875120099447713e-01
9.644427054453152959e-02
5.193988016006001462e-01
1.476395597373637847e-01
1.338447487023419757e-01
7.925786889914800959e-01
-1.546803243722377541e+00
-4.654580998797151759e-02
-9.211843404934982882e-01
-2.760531477202866624e-01
2.902056116818464981e-01
6.627690653451559499e-02
2.156684162688807527e-01
7.277598245787545439e-01
2.074199158151152633e-01
1.247946609650675137e-01
-6.092071001612836545e-01
3.531266861792617950e-01
4.408484808112240749e-01
4.001392400769049340e-01
3.645736128154611899e-01
1.343917362323504006e-01
8.821456686749412635e-01
3.363407711428728075e-01
-1.181496394690835672e+00
-6.211811053870118782e-01
-6.834817037544347329e-01
1.313343072424923430e-01
-3.317463114873026586e-01
4.752746914526396194e-01
2.938409578246704568e-01
-9.346152393775788436e-01
-7.524272436145397203e-01
1.417110196726120153e-01
-5.482440324660510234e-01
-3.114790023765255933e-01
-2.021456847681170621e-01
-2.653537932360885976e-02
-1.323370912185510562e-02
2.582468296754011350e-01
-1.441310752393325512e-01
-1.684053631094449555e-01
4.998209166776409473e-01
-3.592184328141797556e-01
-9.109789461221897700e-01
2.322904912953310808e-03
-4.630889734276451009e-01
7.116129848265782820e-04
2.389919046851092244e-01
1.681767581504983178e-01
-7.877380184946281005e-02
6.029415243193300133e-01
6.476118017242050717e-01
-2.669933760051055316e-01
4.133701813518842472e-01
8.810337342116364434e-01
5.949805414543122284e-01
3.692385795037039786e-01
4.565186011661535037e-01
4.439009479252248869e-01
4.575910781392433790e-01
6.178583828682737700e-01
5.028027755333782656e-01
5.001926815407879978e-01
6.654507432366327802e-01
2.686121184763868297e-01
6.969337730947932075e-01
3.714446191120144292e-01
2.476581187026563047e-01
3.543916278324273916e-01
-3.604056531209412495e-01
1.074886440364008489e-01
4.783732782367816627e-01
8.100933955459610480e-01
6.530807476112407417e-02
5.973055745478449419e-01
6.176213629235838276e-01
4.136958666986839117e-01
1.354002012841829250e-01
2.938977690676534693e-01
5.799677769896955937e-01
2.241518217978575034e-01
9.205189461168949983e-02
7.737816760239781821e-01
4.039994536919804813e-01
5.606741832488215671e-01
-6.776131270444549215e-02
-2.461415870685288443e-01
3.325315868236764505e-01
1.404324902307619305e-01
4.000869546166975210e-01
6.141515152118439680e-01
-4.739137710674482667e-02
1.437809459728369155e-01
1.388437478742353681e-01
1.707081057911715438e-01
3.262205761054257636e-01
2.528839783256099372e-01
-1.934058490182922196e-01
2.427763410468555261e-01
-1.664602312076935708e-01
1.162193042067943272e-01
2.204138572454268918e-01
-2.733175975008008685e-01
2.458665333136342279e-02
-3.809908591070069184e-01
-3.077924328441702384e-01
-3.096310645323978594e-01
-7.665339727720195395e-02
4.703093263314372940e-01
2.845031676557904232e-01
-8.565626574033159413e-01
-2.918877230942886203e-01
-2.628619575251142648e-02
3.387396056195625116e-01
-2.040312138219125826e-01
2.097797128633725056e-02
-5.569835784215991792e-01
-1.446001122977478293e-01
-1.195925137330561272e-01
-7.237882157659092375e-02
-3.517880830019093352e-01
6.954443669151302854e-02
2.292961785637140926e-01
5.456246000773040672e-02
3.188956556549084054e-01
-1.105303724667453746e+00
-2.020599920810693673e-02
3.851098742712274481e-01
-1.107405360880183265e+00
-2.689268647085407693e-01
-5.313199497949629979e-01
4.634046485819236505e-01
-1.626591471604766248e+00
1.641824268286775079e-01
-2.656134881768929534e-01
-4.250557501241352121e-01
5.139771222165604447e-01
-4.664066162300107843e-01
-4.667219188649227718e-02
-9.960616101170944869e-01
-1.979460054409597561e-02
7.006514064289608157e-02
1.727629264275321042e-02
2.505074648209476007e-01
-7.709854293201113817e-01
-9.471222481687534556e-01
-9.414325075622385075e-01
-3.340911240624500761e-02
-1.033031485318112841e+00
-8.713598264282589323e-01
2.928188190635655497e-01
-4.981710870437859873e-01
-1.052325970560965274e-01
8.315162257544175817e-02
6.325555980764435704e-01
1.758881136210718732e-01
-5.740323270915392850e-01
6.496338413577091853e-01
-8.643862966496619615e-02
1.543405397448849303e-02
4.454152941095161911e-01
-1.838303180140603288e-03
-2.992529843781486232e-01
-4.821703049789654028e-01
-8.752350982952020186e-02
-4.008146102712759618e-01
-2.090443653696192894e-01
-7.019937547137881928e-02
1.467835503645600059e-01
-1.989076914250572092e-01
6.332006581863219852e-01
-2.892213573732681509e-01
8.275535699903809050e-02
-9.195290954385135218e-02
-3.644250635207681444e-01
-5.150784310264905352e-01
1.941747274827536340e-02
-3.254117407504913406e-01
8.387475234882355024e-03
-2.468714914772768554e-01
-9.857224607555631346e-02
1.131854430461218253e-01
3.783507264819641613e-01
6.323713041027603232e-01
-3.999275256067994500e-01
1.200765073009078115e-01
5.397581605694770635e-02
4.259401511840039678e-01
1.900506110982372321e-02
-1.823165341579709997e-01
-1.058667774715106730e-01
4.243961144419457487e-01
1.372846642320307148e-02
-2.580415993708292666e-01
-4.072740115473597045e-01
1.451407151930541317e-01
3.103233334584002412e-01
-2.853060997801498688e-01
5.416470279655918318e-01
-1.237459602250059021e+00
6.788438511853989166e-01
5.910844872132442474e-01
2.782130323928154181e-01
9.573658191101447335e-01
-1.583527084367826465e-01
6.142525990001894698e-01
-3.293148257060093953e-02
-3.122414097713228087e-01
-5.455255072548468309e-01
-4.884840017560279080e-01
-4.677599420914126394e-01
-2.473703368791981549e-01
-5.614113059615997992e-02
-9.970477382600810567e-02
-2.671497296963960544e-01
-1.736799551505396333e-01
-2.139146307418121895e-01
-8.209368372664878344e-02
2.583029796532130273e-01
-4.682014295820270955e-01
-6.411532362049894296e-01
-5.388595755671330423e-01
5.821180830873283474e-02
-7.344489813490603369e-01
-1.850425093368483487e-01
3.830018755630667515e-01
-3.352966671000491283e-01
-7.470107603644670080e-01
-6.416146932042016138e-02
2.546369866368915491e-01
-1.437137665532671471e-01
6.970108717729318892e-02
3.303075762127455350e-02
-3.211777355420665780e-01
-8.713685913233601976e-01
-1.494135719514740890e-01
-4.767651508562839036e-01
-1.239929176321011406e+00
-1.194309489264980817e+00
4.836953627110160414e-02
-5.071781537937833928e-01
-1.991230843452613530e-01
5.901168039310573654e-01
-6.474980174826018287e-01
-6.001761128326259936e-02
-3.395019630734378291e-01
1.489819081545852575e-01
-4.207658211235150159e-01
-8.638062139412928664e-01
-5.645080214249452721e-01
-2.699764240481596078e-02
-3.086224432413554042e-01
1.727250191595895712e-01
-1.675180224195040646e+00
-8.971617165900038771e-01
-9.522894597954328910e-01
-1.934692843261501816e-01
-1.705235667381354570e-01
-5.758879643233814072e-01
-9.432692460112895860e-01
-1.381295169552252400e+00
-6.204515243416497405e-01
-1.109941653817836826e+00
5.079042163575347990e-01
-3.986366272208664019e-01
-3.046920188626796033e-01
-9.806705796613303383e-02
-1.907523068061592053e-01
-1.248299074778551176e+00
-9.057619021076971366e-01
3.661555912525062406e-01
-6.677306019320816688e-01
1.138244569453470828e-01
-9.927032073616298691e-01
-5.635026390080979941e-02
-4.939512576151582346e-01
-5.841004633134246893e-01
-1.328247091595299856e-01
-1.276200017428469891e-01
-2.599893550450381452e-02
-8.263639733301734180e-01
-8.066854068336727357e-01
-7.203628559802887077e-01
-1.000686745482322948e+00
-4.222264087705288049e-01
-8.558694233449103406e-01
-2.189947758386014687e-01
-9.922367381684259191e-02
4.037656819473331438e-02
1.135831055158731950e-01
-2.969761056445149316e-01
-9.632558003967757188e-01
-8.526451669191885685e-01
9.072798239118298191e-01
-1.043883617872122527e-01
-2.983379802757322175e-01
-3.323843856449480993e-01
-9.926515065153403983e-01
-8.331916994199285442e-01
-6.093087617060635036e-02
-4.395689692962074235e-01
-8.998956654755700668e-02
-3.188582280545080860e-01
-1.297945212809973881e-01
4.579891907052692224e-01
2.090577372631403086e-01
-1.037972174612078122e-02
-5.601453147658232989e-01
5.704127538770787931e-01
-1.635521771115032719e+00
3.399246327316964300e-01
-4.039361960894189973e-01
6.358174756117788151e-01
5.839705923507556573e-01
4.623951908651453002e-01
1.363716008556717096e-01
2.919259193420121329e-02
2.375581561967426980e-01
-1.816690951829289247e-01
5.175808370393353286e-01
4.741119738961767638e-01
-2.018520970965530514e-01
-1.457031144753010654e+00
-1.184416238410194611e+00
-1.178100415251608357e+00
-1.402185984611421299e+00
-8.142874477579260528e-01
-1.210257238224469623e+00
-1.891324477203283616e-03
-4.675892027772370896e-01
1.386501757585690275e-01
-7.096774519339548171e-01
1.325089520042826985e-02
-5.368077936271708345e-02
-2.190598961117829202e-01
-1.159366474330115748e+00
-3.347405548116713092e-01
-1.067326603884760416e+00
-1.114564014562728023e+00
-4.542094371059761104e-01
-3.138554032010783534e-01
-8.414708258023396725e-01
-1.481429783766822661e+00
-4.509007521763637727e-01
2.062497986417014262e-01
-3.399166945794449002e-01
9.225848960950945588e-03
1.572175390538496087e-01
2.287050041754211116e-01
2.339368539818139636e-01
1.784086701451086110e-01
1.838307062942221293e-01
2.443258036104180575e-01
-5.206826214776729689e-01
1.646709246790140635e-01
4.017912602316042747e-02
1.228645253669317650e-01
-7.553947580455057098e-01
-5.421278916965119876e-01
4.036367327143567385e-01
3.084200063501764122e-01
-1.719550992467041295e-01
3.214883393003201140e-03
5.128093457503943853e-01
7.035039886128231501e-01
8.062310274067645555e-01
2.226865389480409407e-01
4.005421786135808793e-01
7.301778576707421697e-01
5.409928876004869158e-01
1.219020181933224978e-01
4.230162769859829308e-01
6.005605635161501699e-01
5.818193325708838071e-01
3.512349371420163124e-01
5.098771350423073612e-01
2.186253439958797951e-01
3.075112318916602971e-01
5.658849076544972823e-01
2.059245389374584068e-01
-2.380836242007969977e-02
6.935902865545608975e-01
3.470988773797092919e-01
5.438624048193768656e-01
3.046503207562790139e-01
5.219479478746019696e-01
5.486177632404366789e-02
5.247068584319154738e-02
5.978989289112807831e-02
5.878589703261154487e-01
3.796339651885350941e-01
3.685389732499718130e-01
-2.256681355824127766e-02
1.502905142149214002e-01
3.094583728873390727e-01
3.167437965949765344e-01
5.304098033281432478e-01
2.874374387412718668e-01
7.624677970761247758e-01
8.152885654289475370e-03
2.208266879965778973e-01
4.457657131269072703e-01
1.052134466251753442e-01
9.715214766777049982e-02
3.512312490687932165e-01
7.201165591625526829e-01
6.205965384940544949e-01
-4.091024025398626307e-03
3.659997272506588240e-01
3.538397307202902908e-01
2.158013826703658600e-01
2.847625458510649188e-01
3.632980352814251246e-01
4.901128342314889919e-01
3.677060054396269484e-01
2.347186484191041145e-01
8.006611288710440144e-01
-1.295913220733533322e-01
-1.156091907733726443e-01
-9.386320481467869126e-02
-4.272578098739939767e-01
1.335233475097836187e-01
7.100121476879421578e-02
-1.927556786187568649e-01
-1.014313735077249978e+00
-9.527560584093888174e-01
-7.997777245355552900e-01
-8.971111655695451770e-01
3.073324557684402047e-01
-1.864232001658041316e-01
-1.342160651876502353e+00
-5.116277165720694020e-01
-4.628348378161095122e-01
-8.161679368806271651e-01
1.350830353308983267e-01
-3.224525893469556981e-01
-1.012570783042388234e+00
-6.600651995817793383e-01
-2.269453634879585735e-01
-7.847890895530981181e-01
-1.397594784973303250e+00
-6.796526677176807363e-01
-9.549841360379576760e-02
-3.422088744304044305e-01
-2.302718406546508667e-01
-1.028679041386174609e+00
-4.021337873628314519e-01
-2.917218326656264016e-01
-1.022435984981503676e+00
-1.372960103029799761e+00
-6.139493521060014336e-01
9.745744885035285965e-02
-5.270099882102552424e-01
1.069394909487482448e-01
-5.323742688535528789e-01
-2.429700621235171831e-01
-9.862425227709139541e-01
-7.030016837980715971e-01
-4.459216619367575296e-01
-1.011907271743722969e+00
-7.949322465279853311e-01
-9.200786571386260215e-01
-1.223140825226179285e+00
-6.982849798919749107e-02
-8.071193654079333868e-01
-4.786336475218211373e-01
-2.229025928256488098e-01
-2.013415443454569589e-02
-5.469987064137139532e-01
-2.661224744020592170e-01
-7.109598432739786533e-01
-7.720880477250882112e-01
-8.249703604850944227e-03
1.264408970849637270e-01
5.419185958949513937e-01
-1.132748867310613861e+00
-6.442993522751853941e-02
-1.039988605646430114e-01
-7.554379080838106997e-03
-9.635913851570914179e-01
-4.599328207960646231e-01
2.318315116814761989e-02
-2.480574822649186384e-01
-4.506778349009181173e-01
-1.417711688396007474e+00
-1.619358409131789189e-01
3.046436710808926862e-01
-1.057846003367265697e-01
7.988624966886929135e-01
3.216948048180062192e-01
-8.978299674403990294e-02
6.438803936128434380e-01
4.036726497129269897e-01
4.154512838544678899e-01
1.278073146660967940e-01
7.165622961731318852e-02
5.839459279427073879e-01
3.224542812836577177e-01
5.742279557300247195e-01
3.723146347641426157e-01
1.620205839081999832e-01
-5.416122495948489934e-01
1.746532136193519325e-01
7.495462490086246543e-02
-2.167913293339268355e-01
-3.987460475549251537e-01
-5.459686881500247502e-01
-3.515154063636461990e-01
-4.626293204212565957e-01
-3.984300683012936273e-01
-1.423521207513668285e-01
3.246044191132123058e-01
-3.548080946031972882e-01
-2.075214195756527602e-01
-2.069827223765512147e-01
-5.165456639851598308e-02
-1.100952559067537029e-01
4.262884129137461398e-01
3.043233628705072635e-01
6.496107935227812824e-02
-7.799978699021997697e-01
-3.833244541747880818e-02
-6.772461878171744942e-01
2.290354596453491043e-01
-1.139541366687785440e-01
-5.118208254110543365e-01
5.732484824665806666e-01
1.726257727017332100e-01
-5.315610357131395070e-02
3.454982140061390594e-01
4.024815340019384236e-01
2.506191884469415876e-01
3.165003402523714482e-01
5.628739042103897416e-01
1.361184341547505006e-01
2.166480214974855212e-01
6.269622470487263843e-01
3.116504788685777738e-01
3.082599333950765685e-01
6.372391795579090967e-01
7.778199811425490218e-02
4.003988637608319467e-01
6.180725961865993767e-01
-8.484671808633899304e-02
3.160200931137478464e-01
2.889662064357397808e-01
2.159102637876454123e-01
2.082783147121206047e-02
5.123456264229535595e-01
-2.343590668818596179e-01
-4.996352217971107845e-01
-5.377139948635519806e-01
-6.289424124807612149e-01
-5.472156021632578193e-01
-1.494717481403330828e+00
-4.945004175626564469e-01
-3.840853369129675066e-02
-8.239804175964821065e-01
-8.295694230136758940e-02
-5.674737985622568814e-01
3.204132291195683768e-01
-2.328761734003017836e-01
5.767973943652049407e-01
-5.320030522680562202e-01
-4.575776398713730098e-01
-5.483677770367145765e-01
-1.264702277712930423e+00
-5.203501447563959603e-01
-1.097666587533969507e+00
2.435533220014616251e-01
-4.275474740513662830e-01
9.665267797621146517e-02
-1.499578170306302249e+00
-1.320772083328279223e+00
-8.569976430084917940e-01
1.251364431683063827e-01
2.665669965716119805e-01
4.117178515080797963e-02
2.377015213208662492e-01
1.870961373685338935e-01
-2.240454796953907646e-01
-3.898407148995319260e-01
7.324550752200717496e-02
-1.397854483830948680e-01
1.406852552237112808e-01
-9.801470084550133466e-01
3.968890239944268261e-01
-5.153217808521979304e-01
-1.124402970363626297e-03
-4.509647792012768663e-01
4.668612042462834122e-01
-8.137990376496927469e-01
2.253644912136206768e-01
-4.072956456122611008e-02
4.693841786910637470e-01
1.656151553811594790e-01
5.292860785884049291e-01
-1.428580766378928224e-01
1.403350135301732748e-01
-2.956881389530822135e-01
-1.421556972547869668e-01
2.534916952077566343e-02
-9.658002123642329684e-01
1.335188179830762711e-01
-1.093775930796438978e+00
-8.752814173531922037e-01
-3.922868172813341603e-02
-5.622773701311338801e-01
-2.013774848961961128e-01
1.055928001582131515e-01
-6.756062875408944679e-01
-8.118916657535304449e-01
4.928960547793188873e-03
-5.405398681564799190e-01
-1.342634614351766453e-01
5.794500453823756003e-02
-5.607781107380704899e-01
2.626262640718311503e-01
-1.377812678743610686e-01
-7.607991320261306978e-01
3.333513594526694712e-01
2.090557511365928878e-01
-7.635723679770416439e-01
-5.809763251140078744e-01
-4.040815466382707832e-01
-3.383217497926587214e-01
1.602814509433339307e-01
2.431249681910079286e-01
-1.245737460756405568e+00
1.360790518912013969e-02
3.224430777802476666e-01
-2.405877765613249897e-02
-1.681857468667234679e-01
-3.096205219162522781e-01
-2.382646324145314964e-01
-8.342674844169742365e-03
-1.371009298336101079e-02
-2.269875315381397751e-01
-1.350618100805308919e-01
1.119657412792877255e-02
-1.578655685367378880e-01
-6.260922550262613129e-01
-1.057583879445742059e-01
-1.609996353938272673e+00
-8.962524600776389239e-01
-9.763817249274204801e-01
-4.263040186940705856e-01
-9.493450338669939814e-02
-4.494088855617159872e-01
-3.853091088578484147e-01
-7.794093740527923142e-01
-2.673020858115369158e-01
-8.644902851348110762e-01
-4.124737195581180682e-01
-8.144210872023607273e-01
9.208419381714462448e-02
-7.666799786064553146e-01
-1.587180168114943613e-01
-6.595636379795701831e-01
-4.421857899958762106e-01
-7.453992304788569223e-01
-2.077774853297398305e-01
-9.694880373186106626e-01
-2.578934346117633253e-02
-9.119013681109801039e-01
-5.011433977759652825e-01
-2.502289296739722557e-01
-5.384529967919532423e-01
-8.712755409291469411e-01
-1.294760944613590148e+00
-4.657920906153037999e-01
-4.527638177333112024e-01
-2.118716149467624321e-01
-2.597635662564080072e-01
-2.173272192730417787e-02
-2.375713726255428704e-01
-8.129587247400338335e-01
-3.064048505945612955e-02
2.988752603529155061e-01
-2.381565623827573974e-01
-1.189424128076527198e+00
-3.970994099196253346e-01
-5.346193619814023634e-01
-7.667663697230383546e-01
-2.777361375401534715e-01
-3.301551179931359603e-01
-6.325537066524639096e-01
-3.350636491550556539e-01
-7.281750329218180662e-01
-3.873494707618888588e-01
-5.853677536332313469e-03
4.215496075842817270e-02
-4.381047634631806131e-01
-4.988417727449662720e-01
-6.984547575495381189e-01
-6.029647417736824222e-01
4.136186055553559004e-01
-4.078520126093070908e-01
4.370343304069780888e-01
1.621610956561090888e-01
-4.872946419322780054e-01
-1.284296331386811429e+00
-4.941714733460528808e-01
-7.287290408837463485e-01
-8.060490146073131523e-01
-5.271242317397492050e-01
-4.636053601331099894e-01
-1.621003273491782026e-02
-6.758240175004676109e-01
-7.404185702099704836e-01
-5.593849651786556576e-01
-8.394889742331536064e-01
-1.025876968105346121e+00
-8.099792845827774590e-01
-8.235660841043300762e-01
-2.063904138754131701e+00
-1.056065354218302055e+00
-1.095798131659810881e+00
-3.492370093606353976e-01
-1.094961040744872660e+00
4.176633667127420124e-01
1.484734077380719663e-01
2.033297943270135633e-01
-2.617878926976343612e-01
-7.148259819884115185e-01
-6.954456590186083309e-01
-8.155048070611330413e-01
-3.885153800025907267e-01
-5.308236990303643044e-01
-3.411249413496492133e-01
-5.863858585489382103e-01
-5.275496192605956258e-01
9.589329846791447287e-02
-1.896394119396238587e-02
-6.320097546299306979e-01
3.940183666798460771e-01
7.351364139972657030e-01
-4.369612455869728018e-01
4.506746807520168457e-02
-3.980177313352701862e-01
3.676409553133959396e-02
3.863253096890304494e-01
-6.979297011413091445e-01
-1.244444183228385681e+00
-4.406547657818478680e-01
-1.091194300788742355e+00
-1.467241312543783871e-01
-1.355920637795573258e+00
5.262566226723096596e-01
-2.749313893873318038e-01
4.969614406732325573e-03
-2.469608604471779378e-01
6.302884176639724778e-01
3.848777891234933524e-01
-5.766022911100684434e-01
-2.920140196603359106e-01
-8.340975609279418501e-01
-3.678600849445771148e-01
-4.401868758524051795e-01
-1.336573666403958471e-01
-7.816173577934345529e-01
-6.182335792126494312e-01
-9.775403563984673694e-01
-1.070357726269448140e+00
-1.454821791668065301e-01
-4.289969109157446003e-02
-8.890171996474789395e-01
-6.553513869323290830e-02
-1.436277929388000418e-01
-1.996695999538403155e-03
-7.948135938270559642e-01
-2.164057171612479569e-01
2.637633298537490900e-02
-4.079514982686322511e-01
2.609130906800029293e-02
-1.654180966921652951e+00
-4.723007690974379558e-01
-6.185846157552594704e-01
-9.649359853551470190e-01
-1.438691710100138632e+00
-3.143815922098092130e-01
1.686383282613291429e-02
-2.073072272821656625e+00
-4.989976684172882648e-01
-3.250875301792514604e-01
1.702322196430419432e-01
-1.445650056748117418e+00
-6.473813227815303217e-03
-3.481121820200895334e-01
-2.889151479767607111e-03
-3.576566712077227095e-01
-3.212777956400838519e-01
-3.580522083099693109e-01
-6.236209114478549198e-01
2.547427266216892860e-01
-1.157729923187590160e+00
-7.438968703654001979e-01
-2.368438123602877310e-01
-4.163963008893298290e-01
-4.968354387710439690e-01
3.239236321059285051e-01
-4.742797654280705988e-01
2.653046000768669033e-03
-4.061455903149701063e-01
1.722635089284035859e-01
-2.253304365772994533e-01
4.330878392585715275e-01
1.222424664420797280e-01
6.831868539164396292e-01
-1.265428826061366641e-01
-6.448978939008605249e-02
-8.473547506337236745e-01
2.741923426777246459e-02
-5.451645306173590333e-01
-6.963102360275861269e-01
-5.460033158399911768e-01
-1.346222383157198443e+00
-4.320366741263735877e-01
-9.062553752362076942e-01
-6.572293486339081392e-01
-2.301117119538755029e-01
5.157190326054563734e-01
-1.237645509441820668e-01
-5.371709876875008227e-01
1.769018066231150266e-01
-9.369080092131992776e-01
-5.072568355734843326e-01
-1.082227985779331547e-01
-3.110533397324292681e-01
-5.490604054130365785e-01
3.228063149291963141e-01
-2.984644236245306836e-01
1.684533487239750493e-03
-1.037988269510369044e+00
3.570716411411906099e-01
-5.262545240618300424e-01
-8.165283751757690389e-01
-5.368885389872735114e-01
-1.686114907559040921e-01
1.325300009856348049e-01
-7.863031489121216633e-02
1.253040499706115640e-01
-5.124076539009294606e-01
3.417889853702090752e-01
-1.169007030415236334e-02
-1.293205361675496823e-01
-3.846963687692203648e-03
-2.183744199446427114e-01
6.832267009433528049e-01
9.595894249024199130e-02
1.477318544291693625e-01
2.527942883627880000e-01
-3.073347556974196926e-01
2.783588603735019928e-01
2.529310342420329483e-01
-8.599418146991646972e-02
9.023085890238857765e-02
-1.514375720226004696e-01
-2.832878968702410849e-01
-4.245087815012739685e-01
-4.765317658426415082e-01
-1.280967825418497963e+00
-7.447168948202851357e-01
-8.871874101297360093e-01
-2.381861880558725220e-01
-4.948742102098077633e-01
-1.025544378393920208e+00
-7.922279588748462054e-01
-9.170083784508328284e-01
-6.181469187506724028e-01
-5.540016318742051471e-01
-8.995884836869261214e-01
-3.613223475371138971e-01
-9.126061439308819079e-01
-5.838558596099370224e-01
-3.491270930850462473e-01
-8.786084169438982405e-01
-1.015649484681664105e-01
-3.119041093508405083e-01
-4.641817431660025806e-01
-1.814533580276325442e-01
-1.004847225911646769e+00
-1.093554522617604885e+00
-9.600380822033872663e-01
-3.516055984956859559e-01
-5.039407690406515483e-01
-1.102022787528879277e+00
-1.224687403468313285e+00
-7.773918960574809356e-01
-2.139431446146684568e-01
2.789038630839738020e-02
-4.834342955478300174e-01
6.527869227686398101e-01
-1.627505806757310325e-01
-1.578742209357846815e-01
1.432590922415172274e-02
-1.549259504734880610e-01
-6.387356317147989404e-02
-1.241533228847228276e+00
-2.064680062754788714e-01
-5.741781585395525633e-01
-3.959201415787224065e-01
-3.521473435853290646e-01
-1.934379582524625163e-01
4.070038495696302050e-01
3.245080841915505832e-01
2.793293741119139417e-01
-3.484919534813210040e-01
-1.026245199441343958e+00
5.945484426246721438e-02
-6.434477730376646498e-01
-5.028993907817657094e-01
-4.542439336394833438e-01
-2.607910540941855704e-01
-1.437642726551184413e+00
-1.251556291852249814e+00
-8.684381799205509456e-01
-8.980657376747652743e-01
-6.665251765113461291e-01
-1.075140598918381762e+00
-6.738175062424474060e-01
-9.006427414036776158e-01
-1.345972687676870505e+00
-4.369997898105630885e-01
3.549714373550957314e-01
-1.108703192084125710e+00
-3.227811820353693184e-01
-2.806675216174478460e-01
-3.556048474140762750e-01
-3.614118684892689282e-01
-1.410211091412893747e-01
-2.847377338174262307e-01
-9.643125332371905722e-01
-6.223047700571082697e-01
-1.100075541075056895e+00
3.563174460373329244e-02
-4.852499071875166492e-01
-1.039885358277810035e+00
-3.691849344637861963e-01
-1.269500220865290352e+00
-3.016448673409907744e-01
-1.779084137600725757e-01
-9.214668921930878609e-01
-1.924627401058408571e-01
-9.827303896008302564e-01
-4.787864396013277180e-01
-6.515630842268360645e-01
4.200964150371168659e-01
2.547861293051657539e-01
6.604957556168500332e-01
2.500714028361995522e-01
-1.771335236947969571e-01
-3.212509923079111263e-02
-1.569161454987565985e-01
-1.803246046503610978e-01
1.487833671899170540e-01
-4.168207179737070667e-01
-6.943412705933084128e-01
8.434043088337120353e-02
-9.245674439198362515e-01
-2.234989966601002576e-01
-9.118124424453233345e-01
-2.142470844036258870e-01
-4.009715534752348320e-01
-1.101373184000777217e+00
-9.359808613042513992e-02
-3.150902038438047059e-01
-6.663422925437135769e-01
-7.695082677947390204e-01
1.689143853169372544e-01
-4.572725849101621498e-01
-1.778993348966586563e-01
-1.259107994931843555e+00
-9.376691714403211364e-01
-1.232572788501067329e+00
-9.684488122074333960e-01
-7.384280472592616995e-01
-8.573164984614352058e-01
-3.073457747072164681e-01
-1.035745957544262019e+00
-1.070388864892368730e+00
-7.752116437888899592e-01
-1.274116681412317820e-01
2.111025632612225644e-01
-2.946345932483715110e-02
-4.036483410072427280e-01
2.179912685401736994e-01
-4.467194615852490003e-01
2.401178023903480230e-01
-1.879479563501469386e-01
-5.985911482744824541e-01
-5.546547101333921814e-01
-1.416458490566596673e-01
-4.089905067212275536e-01
-3.241371469483905754e-01
-1.743823459849104807e-01
1.668842091672917138e-01
-6.252408982359736189e-01
5.238358840885723455e-02
-2.372989001172765844e-01
-4.389519577213839285e-02
-1.090896469218281817e-01
-2.415428171698532911e-01
-1.818681628357430857e-01
2.058672324603162129e-01
-3.652480126240533753e-01
5.089261216215219125e-02
1.125072979988574334e-01
-1.814330351632342103e-02
1.405744025509348960e-01
6.216884093079838580e-01
1.218351966155680893e-01
-2.157499339793363946e-01
-7.720225183760711651e-01
1.990548181376830539e-01
1.174601092205619146e+00
5.793752140981609511e-01
-6.897372756587382137e-01
-3.997694182691579057e-01
-2.087346634941437684e-01
-5.187039573495331179e-01
-1.164271478180977648e-01
5.804317609302988012e-01
9.698343052241152618e-02
-9.802924789897520252e-01
-1.127271055971341918e+00
-6.666495077390711954e-02
4.753494796930290978e-02
3.168483701944680431e-01
1.976714778768431102e-01
-6.231229062952183817e-01
-5.480474260556945643e-01
1.999995428488711147e-01
-2.746944440645781582e-01
3.724747283608073056e-01
-2.040914399416566549e-01
-1.092895933090191063e+00
-3.666870093191605950e-01
7.474576837954099995e-02
-2.180692905886008337e-01
-3.667660391692333377e-01
3.272497083619348990e-01
-4.675174986610440842e-01
5.938674016186784588e-01
1.190962423822490845e-01
-1.880998557404059413e-02
-3.707947866816810878e-01
-1.158950389509066925e+00
-5.377599495160417797e-01
-9.508294828807414278e-01
-1.526498060972004245e+00
1.515234958525747688e-02
2.485562681079780123e-01
6.259904330337941192e-02
6.950246158484786330e-01
-3.595212668793416055e-01
-2.407971952738416355e-01
2.158425551281315247e-01
-4.809789783070531066e-01
5.543414627914993592e-02
2.470929176034171171e-01
6.799914242050739133e-02
-1.123685173349665778e+00
-1.063997836366807226e+00
-1.280209980314980900e+00
-8.182576350041463886e-01
-9.081594516875086676e-01
-9.983693213441894310e-01
-9.317208911503153113e-01
-8.559840865459856785e-01
-1.060158138574049502e+00
8.593914483258494053e-02
-6.944630833339726639e-02
-6.069768567755668975e-01
8.201151574243508158e-01
-3.416107614224753730e-01
3.245075466781040946e-02
-1.095726281078953368e-01
4.424924197284375027e-01
6.917586291934244569e-01
1.286561746777650228e-01
-3.294492399124446802e-01
1.494359344995944694e-01
-6.925536702945142564e-03
-7.749062651124168921e-01
-1.866955376819644796e-01
6.759897044649809672e-01
6.346026204715510266e-02
2.875450507788285814e-01
6.494880305659186948e-02
-6.442403883232673545e-01
-7.225622438116853230e-01
-9.681842507346400950e-01
-5.535300995012319980e-01
-6.533115058176426349e-01
-6.747118546800801031e-01
-5.041098697379849114e-02
-6.103644518336754921e-01
-9.012940149820251046e-01
-9.990516750784063094e-01
-1.276313201963824806e+00
2.497346997876387364e-01
-3.761671266371116595e-01
4.138895573461857935e-03
-5.883218052886062255e-01
-2.410469594780494940e-01
-5.772350998800118010e-03
-6.775394557187288669e-01
-1.923660801946356913e-01
-5.436516653685176115e-01
-7.063442822333105831e-01
-1.541634251590336679e-01
-8.647773632484081485e-01
-1.195682196411907983e+00
-1.082986580058125980e+00
-1.274745963164258811e+00
-7.215245573206838792e-01
-7.131105368343786388e-01
3.339276814156495465e-01
-4.929884561108888175e-01
4.852565431034759902e-01
2.308128730813222007e-01
-1.155528590980131748e-01
-3.273598416769943342e-01
-1.119986732799411300e+00
-9.034782690517745296e-03
-7.162553537301132867e-01
-2.916149791743498643e-01
1.687755386292816850e-01
-7.990360924965506095e-01
-1.581678626086427675e-01
-1.333206052844024603e+00
-1.186316062945546257e+00
-4.624302508238449794e-01
-3.725296467581437065e-01
-1.235909480883289779e+00
3.075369660150182871e-01
-2.405184297788155456e-01
-2.187206393431088136e-01
-1.428843680026482765e+00
-8.716750730775124634e-01
-6.563157488821310670e-01
-1.058717075734234569e+00
-8.751799286772845576e-01
-9.317561794348315773e-01
-3.521841218199316392e-01
1.329821204843561200e-01
-7.683082220867981649e-02
-5.329927884428679041e-01
-2.376159682929532002e-01
-4.002561555900172041e-01
-1.384320448228712475e-01
-4.762720292644835873e-01
-8.630453390139869452e-02
3.952957702111735694e-01
-8.241430245378209563e-01
-6.699597946779946023e-01
-5.371947906970846454e-01
-6.628324859017004078e-01
-1.363270564983824817e+00
-4.912040898873617500e-01
-6.218319208268332510e-01
-1.144065170159456746e-01
7.777149384630453743e-02
-3.581303727942237169e-01
-5.276175859034113458e-01
-6.512498295549631888e-02
-2.611710995110648748e-01
-7.466310588786621016e-01
-6.367626932466997625e-01
-3.617057995032298412e-01
1.270215749313068077e-01
-1.218737871819073337e+00
-1.264282864965112774e-01
-1.215770598876997566e+00
-1.693308145373108697e+00
-1.070651381973083183e+00
-1.038628197410988330e+00
8.490432877080859031e-01
-4.514817821640437212e-01
-6.472102897609244287e-01
-2.601502548693795935e-01
-9.227660064598570688e-01
3.285917751162074629e-01
-2.673447989961397764e-01
-9.897697357701031873e-01
2.396540748244468666e-01
1.639477500557331435e-01
-1.111040930461608900e+00
-4.616314446436868280e-01
-4.868325538856978496e-01
2.620061898667519484e-01
-1.669819826023902776e-01
-5.713129552352987917e-01
-1.372629574769919980e+00
-6.691406749279847910e-01
-8.547080413598064919e-01
-1.964127176131527097e-01
-1.186525445779029742e-01
-6.259794100905234915e-01
-2.622740295516898246e-01
-5.652035170028644195e-01
-6.869117705913002636e-01
-7.873076644339919161e-01
-8.370524972654206364e-01
-5.926291256044653455e-01
-1.367484558044210763e-01
-5.005522836247221496e-01
-3.431254368974547275e-01
-6.632706203620049035e-01
-7.749929052812051244e-01
-2.281465606337616525e-01
-4.104930601389177869e-01
-4.773301099477844645e-02
-5.149263320932611077e-01
-3.227921981493185877e-01
-4.378779215821097803e-02
-7.279246996338434306e-01
-1.256193394147363251e-01
-4.446345323321280324e-02
-5.687163715519991669e-01
-1.369153850718246135e+00
-9.317335124438247407e-01
-4.281153767900526264e-01
-1.270056144266175080e-01
8.310036916583103672e-02
3.173040437284029847e-01
-3.591921137158111677e-01
-1.273435485803685319e-02
7.591087580849784078e-02
-4.013735666207893793e-01
-6.029865351844978516e-01
-5.107642084038864772e-01
4.526144986931989189e-01
-8.895244377831637017e-01
-5.662165774243554939e-01
-8.266062322741878077e-02
-5.365763498715933055e-01
-2.460163400071794237e-01
-1.325786514808986460e-01
-4.301225337521782377e-01
-5.402607192986973172e-02
-2.849372630101594250e-01
7.610511617442642374e-01
-6.296591671346423169e-01
-3.940007622764659656e-01
-1.522700096849479989e-01
-1.017943707459516428e-01
-2.478606546250538417e-02
-5.548025032603355333e-01
-9.719980161201201563e-01
1.450066164844932837e-01
8.548723341386389452e-01
4.254404695144240467e-01
-1.297254467635460817e-01
-1.728399281523446129e-01
-3.877021833421739894e-01
-2.405633226817005879e-02
-3.652603497415519151e-01
-1.134081372721493119e+00
-1.399670290143936041e-02
-8.796088080232293827e-01
-1.840373738704236262e-01
-1.178377232866094915e-01
-3.977855001276650593e-02
-2.429396056226547085e-01
-6.737969115216421723e-02
1.792513743924743219e-01
-7.305999144597657979e-01
9.140096098522433599e-03
1.821902045568666306e-01
-1.501662842372733508e-02
-7.459561513429394108e-02
1.737490470018389355e-01
-2.023076919318403943e-01
-1.483345957334475940e-01
-5.762375511134198991e-01
-8.683318932341222984e-01
-1.031640859130936061e+00
-9.012374579072637837e-02
-4.814715684413937297e-02
2.574478739847430031e-01
-2.433496026302644499e-01
7.104810758497186463e-01
-4.877929672685447637e-01
-8.238027998156861875e-02
-2.383143440299676508e-01
-9.182967246026529917e-01
-5.117590065936831190e-01
-4.183765729638053710e-01
3.209641646790604153e-01
6.307690333238215319e-02
-9.843205797771950039e-01
-1.223801588023499143e+00
-3.419635825388048778e-01
-2.788448754331661061e-01
-8.135694545481291229e-01
-1.251717236668900224e+00
-8.629029197404818330e-01
-7.851392187738226447e-01
-9.800330038121201071e-01
-9.624196657739464422e-01
-3.611821766024004288e-01
4.867856135624541447e-01
-1.016945524465624917e+00
-1.372661158573737605e+00
-4.684347995476696030e-02
-5.504035402551126221e-01
-4.211508603223499958e-01
-5.544031483602323007e-01
-5.280894648933803781e-01
-2.002054764351736127e-01
-1.698543360823795700e-01
1.303446044926429570e-01
1.115286171512501479e-02
1.373209618749388072e-01
2.617299854324648956e-01
-6.904572454185737840e-01
-1.398094545203244082e-02
-1.469647708787905349e-01
-3.273598981480811410e-01
-1.007394913210818865e+00
-1.171603755288363358e+00
-3.924928588736085744e-01
-4.196710846128144379e-01
-2.549102418396536618e-01
-6.746412787976244774e-01
-6.835925753793522519e-01
1.054778843026400459e-01
-9.096947481553183668e-01
2.640886333596420554e-02
-2.051305414955767459e-01
1.498587765498114038e-02
-4.136598717752494603e-02
9.710135415512527457e-01
3.625347612303754241e-01
2.042032024999533846e-01
2.878131212634094105e-02
-1.192762255427835205e+00
-4.454949255815559006e-01
-8.711727884927151777e-01
1.349058247643663555e-01
-9.560036061408669350e-02
8.188551916708212142e-01
-1.419798013923436603e-02
2.447554749960705878e-01
-1.014177953123519327e+00
9.580380244730911377e-02
7.244629103062590891e-01
-3.619242774708145705e-01
-8.399934339194500277e-01
3.136069639107403884e-01
1.009858786476897086e+00
1.248099444947233100e-01
-5.217701804372486540e-01
-6.222955422044205154e-01
-1.050393107985495345e+00
-3.190095674899199318e-01
1.191490280534094615e-01
-3.721716884649751700e-01
-2.920117829798711817e-01
-1.082781083964196700e+00
-1.238634915007698761e-01
-5.519159436229242877e-01
-5.197661509829631932e-01
-9.597710056251449462e-01
-2.669237754950438135e-01
7.385715038521616371e-01
-1.780802157274393449e-01
-2.517113623909310594e-01
-9.251126236408588333e-02
-2.452065829684057618e+00
-5.852076226490208199e-01
-1.895407452878522803e-01
-1.179989402100250828e+00
-4.301057580170359884e-01
-9.565020913463838370e-02
5.370204317969717867e-01
-3.381917479569923612e-01
-5.756675503164315755e-01
-1.830813116414899966e-01
-5.491261166561992590e-01
-2.698192204057003329e-01
1.490036686289318221e-02
3.261326004432651970e-02
9.121367650107457814e-02
-2.532551429362648321e-01
-1.835558016534257098e+00
-7.708014174407086250e-01
-4.042844558610174666e-01
4.103425470310019252e-01
1.465851837241008426e-01
-4.656367497537706318e-02
-9.047840514029640291e-01
-9.849240795865995546e-01
-2.466103603622198104e-03
-9.784741557016086999e-02
3.795077495937536627e-01
-8.715196658514405836e-01
-3.729981962503568504e-01
4.653605210894550814e-01
4.072183664656984226e-01
-6.019180456373355304e-01
-3.972952122521796747e-01
2.433695569706668949e-01
-2.782606278095227370e-02
-4.331233545891109982e-01
-7.243916597814291647e-01
-5.394430474671320086e-01
5.306837558106054509e-01
1.287872067073200899e+00
-5.517099592627583426e-01
-9.984017935568467728e-01
-4.202384548116271934e-01
-1.282592504839818737e-01
-8.056704191331064413e-01
-1.800045319157386747e-02
-1.094348469588476425e+00
-4.029113403535194982e-01
-5.520800705051754909e-01
4.074341701744163546e-02
2.068233901407940389e-01
2.278668810615799289e-01
6.108967413980802286e-02
-1.139699354988055413e+00
-4.449995108738515892e-01
-6.004201060054931843e-02
-6.025025671120634030e-01
4.318580207341123078e-02
-4.831143672459951022e-01
-5.255413140198438304e-01
4.247360243008904690e-01
4.240525514683436414e-01
-1.044385753359711178e-01
-4.822556376044093152e-01
2.279637032916061179e-02
-3.456370645888197646e-01
-4.824637673029754659e-01
-7.999657011623054204e-02
-1.062276799589548099e-01
-5.293780406179734443e-01
-2.051032007458273854e-01
-7.603728477685781639e-01
4.711767862308707810e-01
-3.001082518659005660e-01
-1.988079156484388321e-01
1.636761570471502170e-01
2.141487139982845012e-01
3.444143294547859224e-02
-6.620104514471294443e-01
5.153443149985788008e-01
8.149555951659015474e-01
-8.381174090752327999e-01
-1.809648215893142620e-01
1.826820804613785154e-01
4.438613118947162817e-01
9.115372703852317460e-02
1.703117238080159357e+00
-3.306170232688301902e-01
-6.752283297406271867e-01
1.873982452184137504e-01
-2.192795690827141486e-01
-2.068127931734161373e-01
2.879286318112292756e-02
2.144017174385291491e-01
-5.190252394257702795e-01
3.290735699705955586e-01
1.024101105577681359e-01
-5.056512411795601736e-01
1.034360147530717228e-01
5.004772853723734594e-01
-7.068030281818935001e-02
1.302310232816139002e-01
1.034458730249346647e+00
3.873132086554665343e-01
9.522361562601808216e-02
-3.783323103646897556e-02
2.388004672707690346e-01
3.632862213143790986e-01
-2.484845764413499275e-02
2.398680736786243106e-01
-8.419540045252068561e-01
-5.540507592951822158e-01
-2.804462198760682146e-01
1.272718276328539622e+00
3.128277880065447741e-02
-4.163546581614871456e-01
-7.415301261727209603e-01
-2.801497154371642151e-01
-3.539175450712618576e-02
-1.009350020046136664e-01
-1.431560568958428981e+00
-2.896118489947550889e-02
-9.644152795859338712e-01
-1.739564181531403797e+00
-3.731014559404101649e-01
1.928667528581893414e-02
-2.486181644079943354e-01
-9.750980836475534597e-01
-3.560674379266870471e-01
-3.566386846672266464e-01
1.103804385914398112e-01
-2.485984394337325543e-01
-6.693448774701804549e-01
-7.256889259874982345e-01
-2.057131334139045975e-01
-1.222528151786238970e+00
-5.650856132227712880e-01
4.560325372672930921e-01
-2.787540677136096101e-01
1.827521275321870586e-01
-1.314656269205846939e-01
-6.433776232021498620e-02
-2.136405583094034555e-01
3.248353229888495397e-01
-5.016010939938204682e-01
1.903046725051907584e-01
-5.518063251553910753e-01
-4.781532167918642884e-01
-4.070774994813686209e-01
-6.242035995847824426e-01
6.379390229993709971e-01
-5.552776050226839732e-01
-1.881989345292844340e-01
4.975589735218254317e-01
-5.075633762267052207e-01
1.905510561117595425e-01
6.777533765834155011e-01
2.992013572334275562e-01
-1.310531341172280317e+00
5.960241982049572229e-01
2.171982272947239612e-01
-8.839325639278531460e-03
-7.150548722825045278e-02
-1.542788438413748298e-01
4.193002534611831589e-01
9.997097972326383086e-01
-1.375123651522964563e+00
-2.778451197025306185e-01
-1.238189928545024854e+00
5.202548498384814701e-01
-1.561331409187215191e-02
2.516666672907442170e-01
3.812455888245133706e-02
-2.260845797157789439e-01
-1.093081938082741456e+00
-1.081993334747564317e+00
2.582865863735812617e-01
-6.464177201454314459e-02
-1.030847611847898748e-01
1.067719267352474910e+00
-6.993746081089889655e-02
5.635912329835361945e-01
-9.337852445125243150e-01
9.211879873145770170e-03
-7.723465948134760062e-01
-5.669905496261736788e-01
-6.187724284811084718e-01
-1.148691099964744833e+00
6.783024600620860545e-01
1.002750092959536488e-01
-9.479814359729524798e-01
1.843181907174610834e-01
-8.035779225353498756e-01
-3.310908420383110173e-01
-1.881504461924693450e+00
-1.165002910465213898e-01
-5.694645221448106920e-01
